<?xml version="1.0"?>
<opencv_storage>
<cascade>
  <stageType>BOOST</stageType>
  <featureType>HAAR</featureType>
  <height>24</height>
  <width>32</width>
  <stageParams>
    <boostType>GAB</boostType>
    <minHitRate>9.9500000476837158e-01</minHitRate>
    <maxFalseAlarm>5.0000000000000000e-01</maxFalseAlarm>
    <weightTrimRate>9.4999998807907104e-01</weightTrimRate>
    <maxDepth>1</maxDepth>
    <maxWeakCount>100</maxWeakCount></stageParams>
  <featureParams>
    <maxCatCount>0</maxCatCount>
    <featSize>1</featSize>
    <mode>BASIC</mode></featureParams>
  <stageNum>14</stageNum>
  <stages>
    <!-- stage 0 -->
    <_>
      <maxWeakCount>1</maxWeakCount>
      <stageThreshold>1.</stageThreshold>
      <weakClassifiers>
        <_>
          <internalNodes>
            0 -1 10 -1.8617686629295349e-01</internalNodes>
          <leafValues>
            1. -1.</leafValues></_></weakClassifiers></_>
    <!-- stage 1 -->
    <_>
      <maxWeakCount>2</maxWeakCount>
      <stageThreshold>-9.3300826847553253e-02</stageThreshold>
      <weakClassifiers>
        <_>
          <internalNodes>
            0 -1 40 3.1856447458267212e-02</internalNodes>
          <leafValues>
            -9.6610170602798462e-01 9.3442624807357788e-01</leafValues></_>
        <_>
          <internalNodes>
            0 -1 5 -8.2402996718883514e-02</internalNodes>
          <leafValues>
            8.7280088663101196e-01 -9.5474678277969360e-01</leafValues></_></weakClassifiers></_>
    <!-- stage 2 -->
    <_>
      <maxWeakCount>2</maxWeakCount>
      <stageThreshold>-1.6713412106037140e-01</stageThreshold>
      <weakClassifiers>
        <_>
          <internalNodes>
            0 -1 3 -1.8524831533432007e-01</internalNodes>
          <leafValues>
            8.5714286565780640e-01 -9.4736844301223755e-01</leafValues></_>
        <_>
          <internalNodes>
            0 -1 14 -2.8503644466400146e-01</internalNodes>
          <leafValues>
            7.8023427724838257e-01 -9.7079241275787354e-01</leafValues></_></weakClassifiers></_>
    <!-- stage 3 -->
    <_>
      <maxWeakCount>3</maxWeakCount>
      <stageThreshold>-1.0476068258285522e+00</stageThreshold>
      <weakClassifiers>
        <_>
          <internalNodes>
            0 -1 20 1.0394559800624847e-01</internalNodes>
          <leafValues>
            -9.0740740299224854e-01 7.4242424964904785e-01</leafValues></_>
        <_>
          <internalNodes>
            0 -1 36 -1.0285919159650803e-01</internalNodes>
          <leafValues>
            8.8825082778930664e-01 -7.0976632833480835e-01</leafValues></_>
        <_>
          <internalNodes>
            0 -1 9 2.1422291174530983e-02</internalNodes>
          <leafValues>
            -9.1422653198242188e-01 5.6956690549850464e-01</leafValues></_></weakClassifiers></_>
    <!-- stage 4 -->
    <_>
      <maxWeakCount>3</maxWeakCount>
      <stageThreshold>-9.4127917289733887e-01</stageThreshold>
      <weakClassifiers>
        <_>
          <internalNodes>
            0 -1 30 1.9993159919977188e-02</internalNodes>
          <leafValues>
            -7.7966099977493286e-01 7.5409835577011108e-01</leafValues></_>
        <_>
          <internalNodes>
            0 -1 37 3.6104455590248108e-02</internalNodes>
          <leafValues>
            -8.3419477939605713e-01 6.3689559698104858e-01</leafValues></_>
        <_>
          <internalNodes>
            0 -1 35 -3.6756583722308278e-04</internalNodes>
          <leafValues>
            6.7941236495971680e-01 -7.9851371049880981e-01</leafValues></_></weakClassifiers></_>
    <!-- stage 5 -->
    <_>
      <maxWeakCount>2</maxWeakCount>
      <stageThreshold>-1.7047427594661713e-01</stageThreshold>
      <weakClassifiers>
        <_>
          <internalNodes>
            0 -1 13 -4.5891305804252625e-01</internalNodes>
          <leafValues>
            7.6068377494812012e-01 -7.2357726097106934e-01</leafValues></_>
        <_>
          <internalNodes>
            0 -1 34 1.9161410164088011e-03</internalNodes>
          <leafValues>
            -8.9386051893234253e-01 5.5310297012329102e-01</leafValues></_></weakClassifiers></_>
    <!-- stage 6 -->
    <_>
      <maxWeakCount>3</maxWeakCount>
      <stageThreshold>-8.6914098262786865e-01</stageThreshold>
      <weakClassifiers>
        <_>
          <internalNodes>
            0 -1 29 -1.2858156114816666e-02</internalNodes>
          <leafValues>
            6.3636362552642822e-01 -7.7777779102325439e-01</leafValues></_>
        <_>
          <internalNodes>
            0 -1 27 -7.0174746215343475e-03</internalNodes>
          <leafValues>
            8.6509031057357788e-01 -6.2225192785263062e-01</leafValues></_>
        <_>
          <internalNodes>
            0 -1 16 -2.2272041533142328e-03</internalNodes>
          <leafValues>
            5.3088873624801636e-01 -9.5199859142303467e-01</leafValues></_></weakClassifiers></_>
    <!-- stage 7 -->
    <_>
      <maxWeakCount>4</maxWeakCount>
      <stageThreshold>-6.6843819618225098e-01</stageThreshold>
      <weakClassifiers>
        <_>
          <internalNodes>
            0 -1 32 -7.6052104122936726e-03</internalNodes>
          <leafValues>
            7.2413790225982666e-01 -6.7741936445236206e-01</leafValues></_>
        <_>
          <internalNodes>
            0 -1 6 -3.7029120139777660e-03</internalNodes>
          <leafValues>
            5.3660213947296143e-01 -8.5067939758300781e-01</leafValues></_>
        <_>
          <internalNodes>
            0 -1 21 1.2246258556842804e-01</internalNodes>
          <leafValues>
            -9.2875027656555176e-01 4.4743275642395020e-01</leafValues></_>
        <_>
          <internalNodes>
            0 -1 22 -1.7967741005122662e-03</internalNodes>
          <leafValues>
            4.1222783923149109e-01 -9.3710798025131226e-01</leafValues></_></weakClassifiers></_>
    <!-- stage 8 -->
    <_>
      <maxWeakCount>3</maxWeakCount>
      <stageThreshold>-9.9079328775405884e-01</stageThreshold>
      <weakClassifiers>
        <_>
          <internalNodes>
            0 -1 0 4.7299813479185104e-02</internalNodes>
          <leafValues>
            -9.2857140302658081e-01 5.0000000000000000e-01</leafValues></_>
        <_>
          <internalNodes>
            0 -1 19 -5.3118441253900528e-02</internalNodes>
          <leafValues>
            8.7661576271057129e-01 -5.8247917890548706e-01</leafValues></_>
        <_>
          <internalNodes>
            0 -1 28 -2.4035312235355377e-03</internalNodes>
          <leafValues>
            5.2025735378265381e-01 -9.2684626579284668e-01</leafValues></_></weakClassifiers></_>
    <!-- stage 9 -->
    <_>
      <maxWeakCount>5</maxWeakCount>
      <stageThreshold>-8.6928170919418335e-01</stageThreshold>
      <weakClassifiers>
        <_>
          <internalNodes>
            0 -1 18 -4.1501432657241821e-01</internalNodes>
          <leafValues>
            6.0305345058441162e-01 -7.2477066516876221e-01</leafValues></_>
        <_>
          <internalNodes>
            0 -1 7 -4.8061640700325370e-04</internalNodes>
          <leafValues>
            5.8860349655151367e-01 -7.5277203321456909e-01</leafValues></_>
        <_>
          <internalNodes>
            0 -1 1 -9.8981522023677826e-04</internalNodes>
          <leafValues>
            6.5266108512878418e-01 -6.8948793411254883e-01</leafValues></_>
        <_>
          <internalNodes>
            0 -1 38 2.7262778952717781e-02</internalNodes>
          <leafValues>
            -6.8104100227355957e-01 6.2743926048278809e-01</leafValues></_>
        <_>
          <internalNodes>
            0 -1 2 -1.6680870205163956e-02</internalNodes>
          <leafValues>
            6.3741439580917358e-01 -7.1094244718551636e-01</leafValues></_></weakClassifiers></_>
    <!-- stage 10 -->
    <_>
      <maxWeakCount>4</maxWeakCount>
      <stageThreshold>-3.7865340709686279e-01</stageThreshold>
      <weakClassifiers>
        <_>
          <internalNodes>
            0 -1 39 -8.1233799457550049e-02</internalNodes>
          <leafValues>
            6.6129034757614136e-01 -7.0689654350280762e-01</leafValues></_>
        <_>
          <internalNodes>
            0 -1 15 6.5403496846556664e-03</internalNodes>
          <leafValues>
            -7.8254795074462891e-01 4.9609023332595825e-01</leafValues></_>
        <_>
          <internalNodes>
            0 -1 26 1.3326543848961592e-03</internalNodes>
          <leafValues>
            3.7726703286170959e-01 -1.</leafValues></_>
        <_>
          <internalNodes>
            0 -1 23 -2.3897716309875250e-03</internalNodes>
          <leafValues>
            7.8418523073196411e-01 -5.4511409997940063e-01</leafValues></_></weakClassifiers></_>
    <!-- stage 11 -->
    <_>
      <maxWeakCount>4</maxWeakCount>
      <stageThreshold>-1.1909620761871338e+00</stageThreshold>
      <weakClassifiers>
        <_>
          <internalNodes>
            0 -1 25 -5.2380852401256561e-02</internalNodes>
          <leafValues>
            8.9010989665985107e-01 -5.4362416267395020e-01</leafValues></_>
        <_>
          <internalNodes>
            0 -1 42 2.5962769985198975e-02</internalNodes>
          <leafValues>
            -5.2964758872985840e-01 7.7268499135971069e-01</leafValues></_>
        <_>
          <internalNodes>
            0 -1 11 -5.4574753157794476e-03</internalNodes>
          <leafValues>
            5.0779020786285400e-01 -8.9518392086029053e-01</leafValues></_>
        <_>
          <internalNodes>
            0 -1 24 -2.8501337766647339e-01</internalNodes>
          <leafValues>
            6.6334438323974609e-01 -6.2548053264617920e-01</leafValues></_></weakClassifiers></_>
    <!-- stage 12 -->
    <_>
      <maxWeakCount>4</maxWeakCount>
      <stageThreshold>-2.8396856784820557e-01</stageThreshold>
      <weakClassifiers>
        <_>
          <internalNodes>
            0 -1 17 -2.1403221786022186e-01</internalNodes>
          <leafValues>
            6.1428570747375488e-01 -8.6000001430511475e-01</leafValues></_>
        <_>
          <internalNodes>
            0 -1 33 -1.6264718025922775e-02</internalNodes>
          <leafValues>
            9.0071398019790649e-01 -4.9785190820693970e-01</leafValues></_>
        <_>
          <internalNodes>
            0 -1 41 2.9585581272840500e-02</internalNodes>
          <leafValues>
            -6.8950510025024414e-01 6.3230127096176147e-01</leafValues></_>
        <_>
          <internalNodes>
            0 -1 8 -9.4951363280415535e-03</internalNodes>
          <leafValues>
            4.4158202409744263e-01 -8.5907793045043945e-01</leafValues></_></weakClassifiers></_>
    <!-- stage 13 -->
    <_>
      <maxWeakCount>4</maxWeakCount>
      <stageThreshold>-9.5141744613647461e-01</stageThreshold>
      <weakClassifiers>
        <_>
          <internalNodes>
            0 -1 12 1.3476341962814331e-02</internalNodes>
          <leafValues>
            -9.2592591047286987e-01 4.7169810533523560e-01</leafValues></_>
        <_>
          <internalNodes>
            0 -1 43 -4.5974170789122581e-03</internalNodes>
          <leafValues>
            4.8361662030220032e-01 -7.0061236619949341e-01</leafValues></_>
        <_>
          <internalNodes>
            0 -1 31 9.8551325500011444e-03</internalNodes>
          <leafValues>
            3.7182435393333435e-01 -9.3341958522796631e-01</leafValues></_>
        <_>
          <internalNodes>
            0 -1 4 -8.4533415734767914e-02</internalNodes>
          <leafValues>
            3.0329647660255432e-01 -9.3620681762695313e-01</leafValues></_></weakClassifiers></_></stages>
  <features>
    <_>
      <rects>
        <_>
          0 11 28 10 -1.</_>
        <_>
          0 11 14 5 2.</_>
        <_>
          14 16 14 5 2.</_></rects>
      <tilted>0</tilted></_>
    <_>
      <rects>
        <_>
          0 15 9 2 -1.</_>
        <_>
          0 16 9 1 2.</_></rects>
      <tilted>0</tilted></_>
    <_>
      <rects>
        <_>
          1 0 27 6 -1.</_>
        <_>
          1 3 27 3 2.</_></rects>
      <tilted>0</tilted></_>
    <_>
      <rects>
        <_>
          1 10 30 8 -1.</_>
        <_>
          11 10 10 8 3.</_></rects>
      <tilted>0</tilted></_>
    <_>
      <rects>
        <_>
          1 14 30 3 -1.</_>
        <_>
          11 14 10 3 3.</_></rects>
      <tilted>0</tilted></_>
    <_>
      <rects>
        <_>
          2 3 22 14 -1.</_>
        <_>
          2 3 11 7 2.</_>
        <_>
          13 10 11 7 2.</_></rects>
      <tilted>0</tilted></_>
    <_>
      <rects>
        <_>
          3 10 5 8 -1.</_>
        <_>
          3 14 5 4 2.</_></rects>
      <tilted>0</tilted></_>
    <_>
      <rects>
        <_>
          4 22 15 1 -1.</_>
        <_>
          9 22 5 1 3.</_></rects>
      <tilted>0</tilted></_>
    <_>
      <rects>
        <_>
          5 4 8 10 -1.</_>
        <_>
          5 4 4 5 2.</_>
        <_>
          9 9 4 5 2.</_></rects>
      <tilted>0</tilted></_>
    <_>
      <rects>
        <_>
          5 16 26 3 -1.</_>
        <_>
          18 16 13 3 2.</_></rects>
      <tilted>0</tilted></_>
    <_>
      <rects>
        <_>
          7 7 18 15 -1.</_>
        <_>
          7 12 18 5 3.</_></rects>
      <tilted>0</tilted></_>
    <_>
      <rects>
        <_>
          7 16 12 8 -1.</_>
        <_>
          11 16 4 8 3.</_></rects>
      <tilted>0</tilted></_>
    <_>
      <rects>
        <_>
          8 3 24 6 -1.</_>
        <_>
          20 3 12 6 2.</_></rects>
      <tilted>0</tilted></_>
    <_>
      <rects>
        <_>
          8 6 18 18 -1.</_>
        <_>
          8 12 18 6 3.</_></rects>
      <tilted>0</tilted></_>
    <_>
      <rects>
        <_>
          9 7 16 15 -1.</_>
        <_>
          9 12 16 5 3.</_></rects>
      <tilted>0</tilted></_>
    <_>
      <rects>
        <_>
          9 13 22 4 -1.</_>
        <_>
          9 13 11 2 2.</_>
        <_>
          20 15 11 2 2.</_></rects>
      <tilted>0</tilted></_>
    <_>
      <rects>
        <_>
          9 16 12 8 -1.</_>
        <_>
          13 16 4 8 3.</_></rects>
      <tilted>0</tilted></_>
    <_>
      <rects>
        <_>
          10 5 10 18 -1.</_>
        <_>
          10 11 10 6 3.</_></rects>
      <tilted>0</tilted></_>
    <_>
      <rects>
        <_>
          10 6 15 18 -1.</_>
        <_>
          10 12 15 6 3.</_></rects>
      <tilted>0</tilted></_>
    <_>
      <rects>
        <_>
          10 8 16 4 -1.</_>
        <_>
          10 10 16 2 2.</_></rects>
      <tilted>0</tilted></_>
    <_>
      <rects>
        <_>
          11 5 18 17 -1.</_>
        <_>
          20 5 9 17 2.</_></rects>
      <tilted>0</tilted></_>
    <_>
      <rects>
        <_>
          12 0 18 23 -1.</_>
        <_>
          21 0 9 23 2.</_></rects>
      <tilted>0</tilted></_>
    <_>
      <rects>
        <_>
          12 8 14 8 -1.</_>
        <_>
          12 8 7 4 2.</_>
        <_>
          19 12 7 4 2.</_></rects>
      <tilted>0</tilted></_>
    <_>
      <rects>
        <_>
          12 9 3 3 -1.</_>
        <_>
          12 10 3 1 3.</_></rects>
      <tilted>0</tilted></_>
    <_>
      <rects>
        <_>
          13 7 12 15 -1.</_>
        <_>
          13 12 12 5 3.</_></rects>
      <tilted>0</tilted></_>
    <_>
      <rects>
        <_>
          13 8 14 4 -1.</_>
        <_>
          13 10 14 2 2.</_></rects>
      <tilted>0</tilted></_>
    <_>
      <rects>
        <_>
          14 17 6 6 -1.</_>
        <_>
          16 17 2 6 3.</_></rects>
      <tilted>0</tilted></_>
    <_>
      <rects>
        <_>
          15 2 4 6 -1.</_>
        <_>
          15 4 4 2 3.</_></rects>
      <tilted>0</tilted></_>
    <_>
      <rects>
        <_>
          15 7 9 17 -1.</_>
        <_>
          18 7 3 17 3.</_></rects>
      <tilted>0</tilted></_>
    <_>
      <rects>
        <_>
          15 10 10 6 -1.</_>
        <_>
          15 10 5 3 2.</_>
        <_>
          20 13 5 3 2.</_></rects>
      <tilted>0</tilted></_>
    <_>
      <rects>
        <_>
          16 2 8 10 -1.</_>
        <_>
          20 2 4 10 2.</_></rects>
      <tilted>0</tilted></_>
    <_>
      <rects>
        <_>
          16 10 6 14 -1.</_>
        <_>
          16 10 3 7 2.</_>
        <_>
          19 17 3 7 2.</_></rects>
      <tilted>0</tilted></_>
    <_>
      <rects>
        <_>
          16 10 8 4 -1.</_>
        <_>
          16 10 4 2 2.</_>
        <_>
          20 12 4 2 2.</_></rects>
      <tilted>0</tilted></_>
    <_>
      <rects>
        <_>
          17 0 2 9 -1.</_>
        <_>
          17 3 2 3 3.</_></rects>
      <tilted>0</tilted></_>
    <_>
      <rects>
        <_>
          17 6 6 6 -1.</_>
        <_>
          17 6 3 3 2.</_>
        <_>
          20 9 3 3 2.</_></rects>
      <tilted>0</tilted></_>
    <_>
      <rects>
        <_>
          17 13 2 4 -1.</_>
        <_>
          17 15 2 2 2.</_></rects>
      <tilted>0</tilted></_>
    <_>
      <rects>
        <_>
          18 7 7 10 -1.</_>
        <_>
          18 12 7 5 2.</_></rects>
      <tilted>0</tilted></_>
    <_>
      <rects>
        <_>
          19 14 12 3 -1.</_>
        <_>
          25 14 6 3 2.</_></rects>
      <tilted>0</tilted></_>
    <_>
      <rects>
        <_>
          20 14 12 2 -1.</_>
        <_>
          26 14 6 2 2.</_></rects>
      <tilted>0</tilted></_>
    <_>
      <rects>
        <_>
          21 0 4 24 -1.</_>
        <_>
          21 12 4 12 2.</_></rects>
      <tilted>0</tilted></_>
    <_>
      <rects>
        <_>
          21 8 10 8 -1.</_>
        <_>
          21 8 5 4 2.</_>
        <_>
          26 12 5 4 2.</_></rects>
      <tilted>0</tilted></_>
    <_>
      <rects>
        <_>
          21 9 8 8 -1.</_>
        <_>
          21 9 4 4 2.</_>
        <_>
          25 13 4 4 2.</_></rects>
      <tilted>0</tilted></_>
    <_>
      <rects>
        <_>
          22 8 6 8 -1.</_>
        <_>
          22 8 3 4 2.</_>
        <_>
          25 12 3 4 2.</_></rects>
      <tilted>0</tilted></_>
    <_>
      <rects>
        <_>
          22 15 4 8 -1.</_>
        <_>
          22 15 2 4 2.</_>
        <_>
          24 19 2 4 2.</_></rects>
      <tilted>0</tilted></_></features></cascade>
</opencv_storage>
